digraph Tree {
node [shape=box] ;
0 [label="square_feet <= 2112.5\nmse = 15118003766.875\nsamples = 10868\nvalue = 350801.358"] ;
1 [label="square_feet <= 1461.0\nmse = 9006596224.997\nsamples = 6937\nvalue = 300076.386"] ;
0 -> 1 [labeldistance=2.5, labelangle=45, headlabel="True"] ;
2 [label="basement_finished_square_feet <= 0.5\nmse = 6055623601.514\nsamples = 3215\nvalue = 258884.05"] ;
1 -> 2 ;
3 [label="quality <= 3.5\nmse = 4687177908.981\nsamples = 2947\nvalue = 250617.599"] ;
2 -> 3 ;
4 [label="square_feet <= 797.0\nmse = 4817573747.855\nsamples = 609\nvalue = 207755.644"] ;
3 -> 4 ;
5 [label="quality <= 2.5\nmse = 3964376105.727\nsamples = 132\nvalue = 169169.015"] ;
4 -> 5 ;
6 [label="Land_Net_Acres <= 0.184\nmse = 3401774978.984\nsamples = 38\nvalue = 137076.447"] ;
5 -> 6 ;
7 [label="mse = 3609080822.498\nsamples = 24\nvalue = 152970.458"] ;
6 -> 7 ;
8 [label="mse = 1870939139.531\nsamples = 14\nvalue = 109829.571"] ;
6 -> 8 ;
9 [label="Land_Net_Acres <= 0.517\nmse = 3607140678.345\nsamples = 94\nvalue = 182142.606"] ;
5 -> 9 ;
10 [label="mse = 3071698933.42\nsamples = 91\nvalue = 177707.747"] ;
9 -> 10 ;
11 [label="mse = 1155555555.556\nsamples = 3\nvalue = 316666.667"] ;
9 -> 11 ;
12 [label="bathrooms <= 2.75\nmse = 4527627412.351\nsamples = 477\nvalue = 218433.704"] ;
4 -> 12 ;
13 [label="quality <= 1.5\nmse = 4297238559.882\nsamples = 475\nvalue = 217413.425"] ;
12 -> 13 ;
14 [label="mse = 2675434097.222\nsamples = 12\nvalue = 132008.333"] ;
13 -> 14 ;
15 [label="mse = 4145326558.369\nsamples = 463\nvalue = 219626.948"] ;
13 -> 15 ;
16 [label="year_built <= 1987.0\nmse = 280562500.0\nsamples = 2\nvalue = 460750.0"] ;
12 -> 16 ;
17 [label="mse = 0.0\nsamples = 1\nvalue = 444000.0"] ;
16 -> 17 ;
18 [label="mse = 0.0\nsamples = 1\nvalue = 477500.0"] ;
16 -> 18 ;
19 [label="square_feet <= 1186.5\nmse = 4050024962.573\nsamples = 2338\nvalue = 261782.24"] ;
3 -> 19 ;
20 [label="bedrooms <= 2.5\nmse = 3825365364.905\nsamples = 966\nvalue = 247707.589"] ;
19 -> 20 ;
21 [label="stories <= 1.75\nmse = 4030427090.166\nsamples = 435\nvalue = 232137.529"] ;
20 -> 21 ;
22 [label="mse = 4400514533.183\nsamples = 329\nvalue = 239754.647"] ;
21 -> 22 ;
23 [label="mse = 2142741711.429\nsamples = 106\nvalue = 208495.717"] ;
21 -> 23 ;
24 [label="quality <= 4.5\nmse = 3296085291.518\nsamples = 531\nvalue = 260462.723"] ;
20 -> 24 ;
25 [label="mse = 3215355105.211\nsamples = 366\nvalue = 253208.137"] ;
24 -> 25 ;
26 [label="mse = 3099466568.167\nsamples = 165\nvalue = 276554.715"] ;
24 -> 26 ;
27 [label="attached_garage_square_feet <= 0.5\nmse = 3970525813.654\nsamples = 1372\nvalue = 271691.944"] ;
19 -> 27 ;
28 [label="Waterfront_Type <= 0.5\nmse = 5904148383.713\nsamples = 436\nvalue = 256779.502"] ;
27 -> 28 ;
29 [label="mse = 5529205500.784\nsamples = 433\nvalue = 255182.132"] ;
28 -> 29 ;
30 [label="mse = 6497555555.556\nsamples = 3\nvalue = 487333.333"] ;
28 -> 30 ;
31 [label="Land_Net_Acres <= 0.079\nmse = 2917981206.606\nsamples = 936\nvalue = 278638.338"] ;
27 -> 31 ;
32 [label="mse = 1555815493.411\nsamples = 98\nvalue = 243762.449"] ;
31 -> 32 ;
33 [label="mse = 2918401570.819\nsamples = 838\nvalue = 282716.902"] ;
31 -> 33 ;
34 [label="quality <= 4.5\nmse = 12089168011.958\nsamples = 268\nvalue = 349784.164"] ;
2 -> 34 ;
35 [label="Crime_Num <= 51.0\nmse = 6715858260.307\nsamples = 119\nvalue = 288534.941"] ;
34 -> 35 ;
36 [label="Land_Net_Acres <= 0.148\nmse = 5526007316.842\nsamples = 26\nvalue = 235965.346"] ;
35 -> 36 ;
37 [label="bedrooms <= 2.5\nmse = 2446237968.75\nsamples = 4\nvalue = 323487.5"] ;
36 -> 37 ;
38 [label="mse = 0.0\nsamples = 1\nvalue = 243950.0"] ;
37 -> 38 ;
39 [label="mse = 450000000.0\nsamples = 3\nvalue = 350000.0"] ;
37 -> 39 ;
40 [label="square_feet <= 813.0\nmse = 4439987588.721\nsamples = 22\nvalue = 220052.227"] ;
36 -> 40 ;
41 [label="mse = 0.0\nsamples = 1\nvalue = 50000.0"] ;
40 -> 41 ;
42 [label="mse = 3208806226.712\nsamples = 21\nvalue = 228149.952"] ;
40 -> 42 ;
43 [label="square_feet <= 652.0\nmse = 6059897774.773\nsamples = 93\nvalue = 303231.817"] ;
35 -> 43 ;
44 [label="Land_Net_Acres <= 0.118\nmse = 1833722222.222\nsamples = 3\nvalue = 149666.667"] ;
43 -> 44 ;
45 [label="mse = 0.0\nsamples = 1\nvalue = 159500.0"] ;
44 -> 45 ;
46 [label="mse = 2678062500.0\nsamples = 2\nvalue = 144750.0"] ;
44 -> 46 ;
47 [label="Crime_Num <= 162.5\nmse = 5388492605.137\nsamples = 90\nvalue = 308350.656"] ;
43 -> 47 ;
48 [label="mse = 6153187640.816\nsamples = 7\nvalue = 386968.571"] ;
47 -> 48 ;
49 [label="mse = 4758767371.526\nsamples = 83\nvalue = 301720.229"] ;
47 -> 49 ;
50 [label="Land_Net_Acres <= 0.215\nmse = 10991575988.503\nsamples = 149\nvalue = 398701.329"] ;
34 -> 50 ;
51 [label="near_schools <= 0.5\nmse = 6972162301.243\nsamples = 85\nvalue = 362507.706"] ;
50 -> 51 ;
52 [label="Land_Net_Acres <= 0.175\nmse = 1900265236.688\nsamples = 4\nvalue = 186793.25"] ;
51 -> 52 ;
53 [label="mse = 0.0\nsamples = 1\nvalue = 124173.0"] ;
52 -> 53 ;
54 [label="mse = 790888888.889\nsamples = 3\nvalue = 207666.667"] ;
52 -> 54 ;
55 [label="square_feet <= 1088.5\nmse = 5622612056.9\nsamples = 81\nvalue = 371184.963"] ;
51 -> 55 ;
56 [label="mse = 2169324831.0\nsamples = 20\nvalue = 329757.0"] ;
55 -> 56 ;
57 [label="mse = 6007627673.367\nsamples = 61\nvalue = 384767.902"] ;
55 -> 57 ;
58 [label="square_feet <= 1349.0\nmse = 12279353022.109\nsamples = 64\nvalue = 446770.984"] ;
50 -> 58 ;
59 [label="bathrooms <= 2.375\nmse = 2837100660.108\nsamples = 36\nvalue = 401186.944"] ;
58 -> 59 ;
60 [label="mse = 2522055678.254\nsamples = 26\nvalue = 384924.231"] ;
59 -> 60 ;
61 [label="mse = 1180723600.0\nsamples = 10\nvalue = 443470.0"] ;
59 -> 61 ;
62 [label="Crime_Num <= 1389.5\nmse = 18312896338.963\nsamples = 28\nvalue = 505379.036"] ;
58 -> 62 ;
63 [label="mse = 15645621991.202\nsamples = 21\nvalue = 546207.81"] ;
62 -> 63 ;
64 [label="mse = 6310854132.776\nsamples = 7\nvalue = 382892.714"] ;
62 -> 64 ;
65 [label="quality <= 5.5\nmse = 8823897396.206\nsamples = 3722\nvalue = 335657.622"] ;
1 -> 65 ;
66 [label="basement_finished_square_feet <= 0.5\nmse = 6372154440.902\nsamples = 3372\nvalue = 323366.333"] ;
65 -> 66 ;
67 [label="square_feet <= 1702.5\nmse = 5252424781.904\nsamples = 3212\nvalue = 317801.957"] ;
66 -> 67 ;
68 [label="quality <= 4.5\nmse = 4507417713.591\nsamples = 1309\nvalue = 299406.336"] ;
67 -> 68 ;
69 [label="quality <= 3.5\nmse = 5776867772.337\nsamples = 361\nvalue = 274994.903"] ;
68 -> 69 ;
70 [label="mse = 5544788372.673\nsamples = 77\nvalue = 240033.766"] ;
69 -> 70 ;
71 [label="mse = 5418548055.623\nsamples = 284\nvalue = 284473.803"] ;
69 -> 71 ;
72 [label="Crime_Num <= 4811.0\nmse = 3710668349.416\nsamples = 948\nvalue = 308702.251"] ;
68 -> 72 ;
73 [label="mse = 4191613192.47\nsamples = 695\nvalue = 316266.013"] ;
72 -> 73 ;
74 [label="mse = 1800614410.813\nsamples = 253\nvalue = 287924.328"] ;
72 -> 74 ;
75 [label="Crime_Num <= 4811.0\nmse = 5372000345.26\nsamples = 1903\nvalue = 330455.592"] ;
67 -> 75 ;
76 [label="Waterfront_Type <= 0.5\nmse = 6346947343.016\nsamples = 1305\nvalue = 339338.369"] ;
75 -> 76 ;
77 [label="mse = 5975754960.081\nsamples = 1284\nvalue = 337430.04"] ;
76 -> 77 ;
78 [label="mse = 15205664399.093\nsamples = 21\nvalue = 456019.048"] ;
76 -> 78 ;
79 [label="stories <= 3.5\nmse = 2696444098.466\nsamples = 598\nvalue = 311070.935"] ;
75 -> 79 ;
80 [label="mse = 2420386072.04\nsamples = 597\nvalue = 310385.961"] ;
79 -> 80 ;
81 [label="mse = 0.0\nsamples = 1\nvalue = 720000.0"] ;
79 -> 81 ;
82 [label="View_Quality <= 0.5\nmse = 15751186384.848\nsamples = 160\nvalue = 435071.181"] ;
66 -> 82 ;
83 [label="Waterfront_Type <= 0.5\nmse = 13006384964.301\nsamples = 136\nvalue = 412845.875"] ;
82 -> 83 ;
84 [label="quality <= 4.5\nmse = 10993351388.272\nsamples = 125\nvalue = 401557.912"] ;
83 -> 84 ;
85 [label="mse = 4959296095.827\nsamples = 20\nvalue = 316942.15"] ;
84 -> 85 ;
86 [label="mse = 10519151675.531\nsamples = 105\nvalue = 417675.2"] ;
84 -> 86 ;
87 [label="Crime_Num <= 238.0\nmse = 17980048760.331\nsamples = 11\nvalue = 541118.182"] ;
83 -> 87 ;
88 [label="mse = 5052126400.0\nsamples = 5\nvalue = 421460.0"] ;
87 -> 88 ;
89 [label="mse = 6878472222.222\nsamples = 6\nvalue = 640833.333"] ;
87 -> 89 ;
90 [label="Crime_Num <= 1164.5\nmse = 12644189891.493\nsamples = 24\nvalue = 561014.583"] ;
82 -> 90 ;
91 [label="near_libraries <= 0.5\nmse = 12073570208.333\nsamples = 12\nvalue = 624575.0"] ;
90 -> 91 ;
92 [label="mse = 11643109375.0\nsamples = 8\nvalue = 668125.0"] ;
91 -> 92 ;
93 [label="mse = 1554876875.0\nsamples = 4\nvalue = 537475.0"] ;
91 -> 93 ;
94 [label="Land_Net_Acres <= 0.336\nmse = 5134956440.972\nsamples = 12\nvalue = 497454.167"] ;
90 -> 94 ;
95 [label="mse = 2965219791.667\nsamples = 6\nvalue = 554825.0"] ;
94 -> 95 ;
96 [label="mse = 721868055.556\nsamples = 6\nvalue = 440083.333"] ;
94 -> 96 ;
97 [label="basement_finished_square_feet <= 0.5\nmse = 16966409331.002\nsamples = 350\nvalue = 454075.411"] ;
65 -> 97 ;
98 [label="year_built <= 2012.5\nmse = 12469095653.85\nsamples = 286\nvalue = 423707.08"] ;
97 -> 98 ;
99 [label="Crime_Num <= 1164.5\nmse = 9910522174.653\nsamples = 205\nvalue = 394280.971"] ;
98 -> 99 ;
100 [label="square_feet <= 1797.5\nmse = 10465297459.816\nsamples = 94\nvalue = 440222.947"] ;
99 -> 100 ;
101 [label="mse = 7875416008.299\nsamples = 33\nvalue = 381413.394"] ;
100 -> 101 ;
102 [label="mse = 8983160227.358\nsamples = 61\nvalue = 472037.951"] ;
100 -> 102 ;
103 [label="attached_garage_square_feet <= 0.5\nmse = 6139639691.805\nsamples = 111\nvalue = 355375.153"] ;
99 -> 103 ;
104 [label="mse = 4715632544.379\nsamples = 13\nvalue = 224526.923"] ;
103 -> 104 ;
105 [label="mse = 3756071169.898\nsamples = 98\nvalue = 372732.571"] ;
103 -> 105 ;
106 [label="Crime_Num <= 4811.0\nmse = 11206732319.949\nsamples = 81\nvalue = 498180.568"] ;
98 -> 106 ;
107 [label="stories <= 1.5\nmse = 7774607829.568\nsamples = 73\nvalue = 513653.781"] ;
106 -> 107 ;
108 [label="mse = 7372470642.539\nsamples = 65\nvalue = 525341.277"] ;
107 -> 108 ;
109 [label="mse = 914543623.109\nsamples = 8\nvalue = 418692.875"] ;
107 -> 109 ;
110 [label="fireplaces <= 0.5\nmse = 20404675468.75\nsamples = 8\nvalue = 356987.5"] ;
106 -> 110 ;
111 [label="mse = 2672222222.222\nsamples = 3\nvalue = 181666.667"] ;
110 -> 111 ;
112 [label="mse = 1536248600.0\nsamples = 5\nvalue = 462180.0"] ;
110 -> 112 ;
113 [label="square_feet <= 2105.0\nmse = 14525748483.004\nsamples = 64\nvalue = 589783.891"] ;
97 -> 113 ;
114 [label="near_healthcare <= 0.5\nmse = 12284870224.943\nsamples = 63\nvalue = 595998.095"] ;
113 -> 114 ;
115 [label="View_Quality <= 0.5\nmse = 8784780936.415\nsamples = 48\nvalue = 620526.042"] ;
114 -> 115 ;
116 [label="mse = 4364519733.333\nsamples = 15\nvalue = 564260.0"] ;
115 -> 116 ;
117 [label="mse = 8700855073.462\nsamples = 33\nvalue = 646101.515"] ;
115 -> 117 ;
118 [label="bathrooms <= 3.125\nmse = 15399381051.556\nsamples = 15\nvalue = 517508.667"] ;
114 -> 118 ;
119 [label="mse = 11838697124.306\nsamples = 12\nvalue = 480635.833"] ;
118 -> 119 ;
120 [label="mse = 2450000000.0\nsamples = 3\nvalue = 665000.0"] ;
118 -> 120 ;
121 [label="mse = 0.0\nsamples = 1\nvalue = 198289.0"] ;
113 -> 121 ;
122 [label="quality <= 5.5\nmse = 13349421276.539\nsamples = 3931\nvalue = 440315.256"] ;
0 -> 122 [labeldistance=2.5, labelangle=-45, headlabel="False"] ;
123 [label="square_feet <= 2700.5\nmse = 7671328679.39\nsamples = 2693\nvalue = 400988.272"] ;
122 -> 123 ;
124 [label="year_built <= 2015.5\nmse = 5942516032.574\nsamples = 1834\nvalue = 377681.503"] ;
123 -> 124 ;
125 [label="View_Quality <= 0.5\nmse = 5793677989.114\nsamples = 1346\nvalue = 364130.469"] ;
124 -> 125 ;
126 [label="basement_finished_square_feet <= 0.5\nmse = 4881113907.018\nsamples = 1300\nvalue = 359800.091"] ;
125 -> 126 ;
127 [label="square_feet <= 2405.5\nmse = 4602077011.524\nsamples = 1284\nvalue = 358312.826"] ;
126 -> 127 ;
128 [label="mse = 4558901548.652\nsamples = 832\nvalue = 349554.227"] ;
127 -> 128 ;
129 [label="mse = 4280424457.606\nsamples = 452\nvalue = 374434.85"] ;
127 -> 129 ;
130 [label="square_feet <= 2466.5\nmse = 12851183478.184\nsamples = 16\nvalue = 479153.062"] ;
126 -> 130 ;
131 [label="mse = 8525184704.213\nsamples = 13\nvalue = 446730.692"] ;
130 -> 131 ;
132 [label="mse = 7302545000.0\nsamples = 3\nvalue = 619650.0"] ;
130 -> 132 ;
133 [label="Crime_Num <= 2783.0\nmse = 16076654497.507\nsamples = 46\nvalue = 486510.717"] ;
125 -> 133 ;
134 [label="bathrooms <= 2.625\nmse = 14695223778.421\nsamples = 35\nvalue = 524444.086"] ;
133 -> 134 ;
135 [label="mse = 15016050765.289\nsamples = 22\nvalue = 487817.273"] ;
134 -> 135 ;
136 [label="mse = 8040019287.148\nsamples = 13\nvalue = 586427.923"] ;
134 -> 136 ;
137 [label="Land_Net_Acres <= 0.174\nmse = 1325883677.686\nsamples = 11\nvalue = 365813.636"] ;
133 -> 137 ;
138 [label="mse = 41766400.0\nsamples = 5\nvalue = 400290.0"] ;
137 -> 138 ;
139 [label="mse = 580034722.222\nsamples = 6\nvalue = 337083.333"] ;
137 -> 139 ;
140 [label="Crime_Num <= 4811.0\nmse = 4449554808.76\nsamples = 488\nvalue = 415057.922"] ;
124 -> 140 ;
141 [label="basement_finished_square_feet <= 0.5\nmse = 4108158858.432\nsamples = 298\nvalue = 438549.195"] ;
140 -> 141 ;
142 [label="Crime_Num <= 697.0\nmse = 3796310868.066\nsamples = 268\nvalue = 430436.276"] ;
141 -> 142 ;
143 [label="mse = 2781680027.048\nsamples = 69\nvalue = 462086.899"] ;
142 -> 143 ;
144 [label="mse = 3680336903.212\nsamples = 199\nvalue = 419461.94"] ;
142 -> 144 ;
145 [label="Crime_Num <= 876.0\nmse = 1053329464.44\nsamples = 30\nvalue = 511024.6"] ;
141 -> 145 ;
146 [label="mse = 407714333.673\nsamples = 7\nvalue = 549133.571"] ;
145 -> 146 ;
147 [label="mse = 673296115.388\nsamples = 23\nvalue = 499426.217"] ;
145 -> 147 ;
148 [label="stories <= 1.75\nmse = 2761994572.382\nsamples = 190\nvalue = 378213.716"] ;
140 -> 148 ;
149 [label="mse = 0.0\nsamples = 1\nvalue = 94000.0"] ;
148 -> 149 ;
150 [label="square_feet <= 2392.0\nmse = 2346953114.641\nsamples = 189\nvalue = 379717.492"] ;
148 -> 150 ;
151 [label="mse = 2919618962.747\nsamples = 87\nvalue = 359073.322"] ;
150 -> 151 ;
152 [label="mse = 1184943936.852\nsamples = 102\nvalue = 397325.755"] ;
150 -> 152 ;
153 [label="bathrooms <= 2.625\nmse = 7726500998.725\nsamples = 859\nvalue = 450749.173"] ;
123 -> 153 ;
154 [label="Crime_Num <= 697.0\nmse = 6684171819.643\nsamples = 463\nvalue = 419671.162"] ;
153 -> 154 ;
155 [label="year_built <= 1988.5\nmse = 9015204079.846\nsamples = 83\nvalue = 478443.096"] ;
154 -> 155 ;
156 [label="condition <= 5.5\nmse = 14517227043.686\nsamples = 11\nvalue = 610041.636"] ;
155 -> 156 ;
157 [label="mse = 625000000.0\nsamples = 2\nvalue = 400000.0"] ;
156 -> 157 ;
158 [label="mse = 5621860730.691\nsamples = 9\nvalue = 656717.556"] ;
156 -> 158 ;
159 [label="Crime_Num <= 269.0\nmse = 5124560441.014\nsamples = 72\nvalue = 458337.764"] ;
155 -> 159 ;
160 [label="mse = 3264763564.039\nsamples = 41\nvalue = 412028.902"] ;
159 -> 160 ;
161 [label="mse = 996783537.193\nsamples = 31\nvalue = 519584.968"] ;
159 -> 161 ;
162 [label="year_built <= 2011.5\nmse = 5255779063.164\nsamples = 380\nvalue = 406834.134"] ;
154 -> 162 ;
163 [label="Land_Net_Acres <= 0.137\nmse = 5592643828.815\nsamples = 186\nvalue = 381322.763"] ;
162 -> 163 ;
164 [label="mse = 3042862443.595\nsamples = 54\nvalue = 345608.815"] ;
163 -> 164 ;
165 [label="mse = 5900486979.621\nsamples = 132\nvalue = 395933.015"] ;
163 -> 165 ;
166 [label="Crime_Num <= 993.0\nmse = 3710553871.106\nsamples = 194\nvalue = 431293.49"] ;
162 -> 166 ;
167 [label="mse = 15130246666.667\nsamples = 3\nvalue = 246700.0"] ;
166 -> 167 ;
168 [label="mse = 2987574999.426\nsamples = 191\nvalue = 434192.864"] ;
166 -> 168 ;
169 [label="Crime_Num <= 4811.0\nmse = 6495611744.111\nsamples = 396\nvalue = 487085.333"] ;
153 -> 169 ;
170 [label="year_built <= 2015.5\nmse = 7124421432.991\nsamples = 300\nvalue = 501178.743"] ;
169 -> 170 ;
171 [label="Waterfront_Type <= 0.5\nmse = 12587995031.393\nsamples = 104\nvalue = 462405.971"] ;
170 -> 171 ;
172 [label="mse = 9691209814.484\nsamples = 99\nvalue = 452036.798"] ;
171 -> 172 ;
173 [label="mse = 25663407533.44\nsamples = 5\nvalue = 667715.6"] ;
171 -> 173 ;
174 [label="near_waterplants <= 0.5\nmse = 3004437219.661\nsamples = 196\nvalue = 521752.051"] ;
170 -> 174 ;
175 [label="mse = 2243135711.491\nsamples = 163\nvalue = 535915.19"] ;
174 -> 175 ;
176 [label="mse = 879962817.471\nsamples = 33\nvalue = 451794.727"] ;
174 -> 176 ;
177 [label="year_built <= 2016.5\nmse = 1970191318.266\nsamples = 96\nvalue = 443043.427"] ;
169 -> 177 ;
178 [label="near_healthcare <= 0.5\nmse = 2083675104.165\nsamples = 24\nvalue = 409147.792"] ;
177 -> 178 ;
179 [label="mse = 773490569.878\nsamples = 22\nvalue = 398661.409"] ;
178 -> 179 ;
180 [label="mse = 1980428004.0\nsamples = 2\nvalue = 524498.0"] ;
178 -> 180 ;
181 [label="square_feet <= 3062.5\nmse = 1421734900.61\nsamples = 72\nvalue = 454341.972"] ;
177 -> 181 ;
182 [label="mse = 1104677635.6\nsamples = 45\nvalue = 440557.667"] ;
181 -> 182 ;
183 [label="mse = 1105687766.077\nsamples = 27\nvalue = 477315.815"] ;
181 -> 183 ;
184 [label="quality <= 6.5\nmse = 15018218477.684\nsamples = 1238\nvalue = 525862.564"] ;
122 -> 184 ;
185 [label="basement_finished_square_feet <= 0.5\nmse = 11619123419.263\nsamples = 806\nvalue = 494793.565"] ;
184 -> 185 ;
186 [label="square_feet <= 3053.5\nmse = 10729355186.603\nsamples = 760\nvalue = 487126.493"] ;
185 -> 186 ;
187 [label="bedrooms <= 2.5\nmse = 9766936216.426\nsamples = 591\nvalue = 469834.518"] ;
186 -> 187 ;
188 [label="porch_square_feet <= 0.5\nmse = 8268365678.188\nsamples = 36\nvalue = 600734.417"] ;
187 -> 188 ;
189 [label="mse = 2025000000.0\nsamples = 2\nvalue = 320000.0"] ;
188 -> 189 ;
190 [label="mse = 3726928266.105\nsamples = 34\nvalue = 617248.206"] ;
188 -> 190 ;
191 [label="Crime_Num <= 4811.0\nmse = 8680601616.72\nsamples = 555\nvalue = 461343.714"] ;
187 -> 191 ;
192 [label="mse = 8789027362.925\nsamples = 424\nvalue = 472964.995"] ;
191 -> 192 ;
193 [label="mse = 6477737469.522\nsamples = 131\nvalue = 423729.794"] ;
191 -> 193 ;
194 [label="fireplaces <= 1.5\nmse = 9392603141.5\nsamples = 169\nvalue = 547597.249"] ;
186 -> 194 ;
195 [label="bedrooms <= 2.5\nmse = 10443610130.465\nsamples = 94\nvalue = 519391.117"] ;
194 -> 195 ;
196 [label="mse = 976281270.25\nsamples = 2\nvalue = 301521.5"] ;
195 -> 196 ;
197 [label="mse = 9595094126.96\nsamples = 92\nvalue = 524127.413"] ;
195 -> 197 ;
198 [label="Crime_Num <= 2821.5\nmse = 5828465159.022\nsamples = 75\nvalue = 582948.933"] ;
194 -> 198 ;
199 [label="mse = 6013708768.668\nsamples = 47\nvalue = 610790.277"] ;
198 -> 199 ;
200 [label="mse = 2032354851.045\nsamples = 28\nvalue = 536215.25"] ;
198 -> 200 ;
201 [label="Land_Net_Acres <= 0.341\nmse = 9302291249.688\nsamples = 46\nvalue = 621466.913"] ;
185 -> 201 ;
202 [label="near_healthcare <= 0.5\nmse = 6187082237.877\nsamples = 31\nvalue = 651585.161"] ;
201 -> 202 ;
203 [label="Crime_Num <= 2821.5\nmse = 4108092716.493\nsamples = 24\nvalue = 669257.917"] ;
202 -> 203 ;
204 [label="mse = 2508427778.512\nsamples = 22\nvalue = 681238.182"] ;
203 -> 204 ;
205 [label="mse = 2758875625.0\nsamples = 2\nvalue = 537475.0"] ;
203 -> 205 ;
206 [label="year_built <= 1985.0\nmse = 8572786020.408\nsamples = 7\nvalue = 590992.857"] ;
202 -> 206 ;
207 [label="mse = 1056250000.0\nsamples = 2\nvalue = 717500.0"] ;
206 -> 207 ;
208 [label="mse = 2617128400.0\nsamples = 5\nvalue = 540390.0"] ;
206 -> 208 ;
209 [label="fireplaces <= 1.5\nmse = 9991335388.516\nsamples = 15\nvalue = 559222.533"] ;
201 -> 209 ;
210 [label="bedrooms <= 3.5\nmse = 5562426554.959\nsamples = 14\nvalue = 577738.429"] ;
209 -> 210 ;
211 [label="mse = 3967508680.556\nsamples = 6\nvalue = 522158.333"] ;
210 -> 211 ;
212 [label="mse = 2704109540.75\nsamples = 8\nvalue = 619423.5"] ;
210 -> 212 ;
213 [label="mse = 0.0\nsamples = 1\nvalue = 300000.0"] ;
209 -> 213 ;
214 [label="Crime_Num <= 2821.5\nmse = 16198943268.489\nsamples = 432\nvalue = 583829.262"] ;
184 -> 214 ;
215 [label="bathrooms <= 2.125\nmse = 17071311625.914\nsamples = 315\nvalue = 609762.079"] ;
214 -> 215 ;
216 [label="Land_Net_Acres <= 0.352\nmse = 58299309917.355\nsamples = 11\nvalue = 385090.909"] ;
215 -> 216 ;
217 [label="Crime_Num <= 1048.5\nmse = 52694671875.0\nsamples = 8\nvalue = 471375.0"] ;
216 -> 217 ;
218 [label="mse = 61791660000.0\nsamples = 5\nvalue = 381200.0"] ;
217 -> 218 ;
219 [label="mse = 1392888888.889\nsamples = 3\nvalue = 621666.667"] ;
217 -> 219 ;
220 [label="fireplaces <= 1.5\nmse = 450000000.0\nsamples = 3\nvalue = 155000.0"] ;
216 -> 220 ;
221 [label="mse = 0.0\nsamples = 2\nvalue = 170000.0"] ;
220 -> 221 ;
222 [label="mse = 0.0\nsamples = 1\nvalue = 125000.0"] ;
220 -> 222 ;
223 [label="bathrooms <= 2.875\nmse = 13686944219.799\nsamples = 304\nvalue = 617891.628"] ;
215 -> 223 ;
224 [label="fireplaces <= 1.5\nmse = 13029515127.14\nsamples = 210\nvalue = 595379.429"] ;
223 -> 224 ;
225 [label="mse = 15010684931.604\nsamples = 119\nvalue = 566585.025"] ;
224 -> 225 ;
226 [label="mse = 7936683553.745\nsamples = 91\nvalue = 633033.648"] ;
224 -> 226 ;
227 [label="Crime_Num <= 752.5\nmse = 11494050765.474\nsamples = 94\nvalue = 668184.84"] ;
223 -> 227 ;
228 [label="mse = 5735155623.832\nsamples = 50\nvalue = 696315.26"] ;
227 -> 228 ;
229 [label="mse = 16117172116.748\nsamples = 44\nvalue = 636218.455"] ;
227 -> 229 ;
230 [label="square_feet <= 3022.5\nmse = 7164942396.033\nsamples = 117\nvalue = 514010.137"] ;
214 -> 230 ;
231 [label="near_waterplants <= 0.5\nmse = 5398022483.468\nsamples = 71\nvalue = 477826.352"] ;
230 -> 231 ;
232 [label="Land_Net_Acres <= 0.402\nmse = 4859506085.525\nsamples = 68\nvalue = 472142.221"] ;
231 -> 232 ;
233 [label="mse = 4657559714.203\nsamples = 60\nvalue = 463421.383"] ;
232 -> 233 ;
234 [label="mse = 1525724965.75\nsamples = 8\nvalue = 537548.5"] ;
232 -> 234 ;
235 [label="Land_Net_Acres <= 0.349\nmse = 272222222.222\nsamples = 3\nvalue = 606666.667"] ;
231 -> 235 ;
236 [label="mse = 0.0\nsamples = 1\nvalue = 585000.0"] ;
235 -> 236 ;
237 [label="mse = 56250000.0\nsamples = 2\nvalue = 617500.0"] ;
235 -> 237 ;
238 [label="square_feet <= 3598.0\nmse = 4752222888.76\nsamples = 46\nvalue = 569859.022"] ;
230 -> 238 ;
239 [label="year_built <= 2015.5\nmse = 3175125146.435\nsamples = 39\nvalue = 552410.641"] ;
238 -> 239 ;
240 [label="mse = 2034441632.373\nsamples = 27\nvalue = 530914.815"] ;
239 -> 240 ;
241 [label="mse = 2362772196.521\nsamples = 12\nvalue = 600776.25"] ;
239 -> 241 ;
242 [label="square_feet <= 4276.0\nmse = 2392459183.674\nsamples = 7\nvalue = 667071.429"] ;
238 -> 242 ;
243 [label="mse = 311479166.667\nsamples = 6\nvalue = 648250.0"] ;
242 -> 243 ;
244 [label="mse = 0.0\nsamples = 1\nvalue = 780000.0"] ;
242 -> 244 ;
}